digraph Tree {
node [shape=box] ;
0 [label="X[1] <= 70.277\ngini = 0.483\nsamples = 8999\nvalue = [5330, 3669]"] ;
1 [label="X[1] <= 64.109\ngini = 0.27\nsamples = 3995\nvalue = [642, 3353]"] ;
0 -> 1 [labeldistance=2.5, labelangle=45, headlabel="True"] ;
2 [label="X[1] <= 39.574\ngini = 0.12\nsamples = 2771\nvalue = [177, 2594]"] ;
1 -> 2 ;
3 [label="X[0] <= 142.352\ngini = 0.188\nsamples = 19\nvalue = [17, 2]"] ;
2 -> 3 ;
4 [label="X[0] <= 140.368\ngini = 0.48\nsamples = 5\nvalue = [3, 2]"] ;
3 -> 4 ;
5 [label="gini = 0.0\nsamples = 3\nvalue = [3, 0]"] ;
4 -> 5 ;
6 [label="gini = 0.0\nsamples = 2\nvalue = [0, 2]"] ;
4 -> 6 ;
7 [label="gini = 0.0\nsamples = 14\nvalue = [14, 0]"] ;
3 -> 7 ;
8 [label="X[1] <= 61.125\ngini = 0.11\nsamples = 2752\nvalue = [160, 2592]"] ;
2 -> 8 ;
9 [label="X[0] <= 154.897\ngini = 0.055\nsamples = 2086\nvalue = [59, 2027]"] ;
8 -> 9 ;
10 [label="X[1] <= 58.429\ngini = 0.131\nsamples = 682\nvalue = [48, 634]"] ;
9 -> 10 ;
11 [label="X[1] <= 57.176\ngini = 0.052\nsamples = 639\nvalue = [17, 622]"] ;
10 -> 11 ;
12 [label="X[1] <= 42.417\ngini = 0.032\nsamples = 607\nvalue = [10, 597]"] ;
11 -> 12 ;
13 [label="X[0] <= 149.973\ngini = 0.298\nsamples = 33\nvalue = [6, 27]"] ;
12 -> 13 ;
14 [label="X[0] <= 149.177\ngini = 0.069\nsamples = 28\nvalue = [1, 27]"] ;
13 -> 14 ;
15 [label="gini = 0.0\nsamples = 24\nvalue = [0, 24]"] ;
14 -> 15 ;
16 [label="X[1] <= 41.441\ngini = 0.375\nsamples = 4\nvalue = [1, 3]"] ;
14 -> 16 ;
17 [label="gini = 0.0\nsamples = 1\nvalue = [1, 0]"] ;
16 -> 17 ;
18 [label="gini = 0.0\nsamples = 3\nvalue = [0, 3]"] ;
16 -> 18 ;
19 [label="gini = 0.0\nsamples = 5\nvalue = [5, 0]"] ;
13 -> 19 ;
20 [label="X[1] <= 56.253\ngini = 0.014\nsamples = 574\nvalue = [4, 570]"] ;
12 -> 20 ;
21 [label="X[1] <= 43.769\ngini = 0.007\nsamples = 547\nvalue = [2, 545]"] ;
20 -> 21 ;
22 [label="X[0] <= 153.482\ngini = 0.133\nsamples = 28\nvalue = [2, 26]"] ;
21 -> 22 ;
23 [label="gini = 0.0\nsamples = 26\nvalue = [0, 26]"] ;
22 -> 23 ;
24 [label="gini = 0.0\nsamples = 2\nvalue = [2, 0]"] ;
22 -> 24 ;
25 [label="gini = 0.0\nsamples = 519\nvalue = [0, 519]"] ;
21 -> 25 ;
26 [label="X[0] <= 150.495\ngini = 0.137\nsamples = 27\nvalue = [2, 25]"] ;
20 -> 26 ;
27 [label="gini = 0.0\nsamples = 2\nvalue = [2, 0]"] ;
26 -> 27 ;
28 [label="gini = 0.0\nsamples = 25\nvalue = [0, 25]"] ;
26 -> 28 ;
29 [label="X[0] <= 152.227\ngini = 0.342\nsamples = 32\nvalue = [7, 25]"] ;
11 -> 29 ;
30 [label="gini = 0.0\nsamples = 7\nvalue = [7, 0]"] ;
29 -> 30 ;
31 [label="gini = 0.0\nsamples = 25\nvalue = [0, 25]"] ;
29 -> 31 ;
32 [label="X[0] <= 153.946\ngini = 0.402\nsamples = 43\nvalue = [31, 12]"] ;
10 -> 32 ;
33 [label="gini = 0.0\nsamples = 27\nvalue = [27, 0]"] ;
32 -> 33 ;
34 [label="X[1] <= 59.854\ngini = 0.375\nsamples = 16\nvalue = [4, 12]"] ;
32 -> 34 ;
35 [label="gini = 0.0\nsamples = 12\nvalue = [0, 12]"] ;
34 -> 35 ;
36 [label="gini = 0.0\nsamples = 4\nvalue = [4, 0]"] ;
34 -> 36 ;
37 [label="X[1] <= 45.962\ngini = 0.016\nsamples = 1404\nvalue = [11, 1393]"] ;
9 -> 37 ;
38 [label="X[0] <= 155.492\ngini = 0.346\nsamples = 9\nvalue = [7, 2]"] ;
37 -> 38 ;
39 [label="gini = 0.0\nsamples = 1\nvalue = [0, 1]"] ;
38 -> 39 ;
40 [label="X[1] <= 45.639\ngini = 0.219\nsamples = 8\nvalue = [7, 1]"] ;
38 -> 40 ;
41 [label="gini = 0.0\nsamples = 5\nvalue = [5, 0]"] ;
40 -> 41 ;
42 [label="X[1] <= 45.809\ngini = 0.444\nsamples = 3\nvalue = [2, 1]"] ;
40 -> 42 ;
43 [label="gini = 0.0\nsamples = 1\nvalue = [0, 1]"] ;
42 -> 43 ;
44 [label="gini = 0.0\nsamples = 2\nvalue = [2, 0]"] ;
42 -> 44 ;
45 [label="X[1] <= 46.708\ngini = 0.006\nsamples = 1395\nvalue = [4, 1391]"] ;
37 -> 45 ;
46 [label="X[0] <= 158.204\ngini = 0.397\nsamples = 11\nvalue = [3, 8]"] ;
45 -> 46 ;
47 [label="gini = 0.0\nsamples = 8\nvalue = [0, 8]"] ;
46 -> 47 ;
48 [label="gini = 0.0\nsamples = 3\nvalue = [3, 0]"] ;
46 -> 48 ;
49 [label="X[0] <= 167.15\ngini = 0.001\nsamples = 1384\nvalue = [1, 1383]"] ;
45 -> 49 ;
50 [label="gini = 0.0\nsamples = 1353\nvalue = [0, 1353]"] ;
49 -> 50 ;
51 [label="X[0] <= 167.192\ngini = 0.062\nsamples = 31\nvalue = [1, 30]"] ;
49 -> 51 ;
52 [label="gini = 0.0\nsamples = 1\nvalue = [1, 0]"] ;
51 -> 52 ;
53 [label="gini = 0.0\nsamples = 30\nvalue = [0, 30]"] ;
51 -> 53 ;
54 [label="X[0] <= 158.424\ngini = 0.257\nsamples = 666\nvalue = [101, 565]"] ;
8 -> 54 ;
55 [label="X[0] <= 157.517\ngini = 0.324\nsamples = 113\nvalue = [90, 23]"] ;
54 -> 55 ;
56 [label="X[1] <= 61.2\ngini = 0.123\nsamples = 76\nvalue = [71, 5]"] ;
55 -> 56 ;
57 [label="X[0] <= 156.01\ngini = 0.49\nsamples = 7\nvalue = [3, 4]"] ;
56 -> 57 ;
58 [label="gini = 0.0\nsamples = 3\nvalue = [3, 0]"] ;
57 -> 58 ;
59 [label="gini = 0.0\nsamples = 4\nvalue = [0, 4]"] ;
57 -> 59 ;
60 [label="X[1] <= 61.6\ngini = 0.029\nsamples = 69\nvalue = [68, 1]"] ;
56 -> 60 ;
61 [label="X[0] <= 156.916\ngini = 0.142\nsamples = 13\nvalue = [12, 1]"] ;
60 -> 61 ;
62 [label="gini = 0.0\nsamples = 12\nvalue = [12, 0]"] ;
61 -> 62 ;
63 [label="gini = 0.0\nsamples = 1\nvalue = [0, 1]"] ;
61 -> 63 ;
64 [label="gini = 0.0\nsamples = 56\nvalue = [56, 0]"] ;
60 -> 64 ;
65 [label="X[1] <= 62.474\ngini = 0.5\nsamples = 37\nvalue = [19, 18]"] ;
55 -> 65 ;
66 [label="X[1] <= 62.3\ngini = 0.1\nsamples = 19\nvalue = [1, 18]"] ;
65 -> 66 ;
67 [label="gini = 0.0\nsamples = 16\nvalue = [0, 16]"] ;
66 -> 67 ;
68 [label="X[0] <= 157.878\ngini = 0.444\nsamples = 3\nvalue = [1, 2]"] ;
66 -> 68 ;
69 [label="gini = 0.0\nsamples = 1\nvalue = [1, 0]"] ;
68 -> 69 ;
70 [label="gini = 0.0\nsamples = 2\nvalue = [0, 2]"] ;
68 -> 70 ;
71 [label="gini = 0.0\nsamples = 18\nvalue = [18, 0]"] ;
65 -> 71 ;
72 [label="X[0] <= 159.461\ngini = 0.039\nsamples = 553\nvalue = [11, 542]"] ;
54 -> 72 ;
73 [label="X[1] <= 62.961\ngini = 0.369\nsamples = 41\nvalue = [10, 31]"] ;
72 -> 73 ;
74 [label="gini = 0.0\nsamples = 30\nvalue = [0, 30]"] ;
73 -> 74 ;
75 [label="X[1] <= 63.253\ngini = 0.165\nsamples = 11\nvalue = [10, 1]"] ;
73 -> 75 ;
76 [label="X[0] <= 158.945\ngini = 0.5\nsamples = 2\nvalue = [1, 1]"] ;
75 -> 76 ;
77 [label="gini = 0.0\nsamples = 1\nvalue = [1, 0]"] ;
76 -> 77 ;
78 [label="gini = 0.0\nsamples = 1\nvalue = [0, 1]"] ;
76 -> 78 ;
79 [label="gini = 0.0\nsamples = 9\nvalue = [9, 0]"] ;
75 -> 79 ;
80 [label="X[1] <= 64.089\ngini = 0.004\nsamples = 512\nvalue = [1, 511]"] ;
72 -> 80 ;
81 [label="gini = 0.0\nsamples = 505\nvalue = [0, 505]"] ;
80 -> 81 ;
82 [label="X[0] <= 160.011\ngini = 0.245\nsamples = 7\nvalue = [1, 6]"] ;
80 -> 82 ;
83 [label="gini = 0.0\nsamples = 1\nvalue = [1, 0]"] ;
82 -> 83 ;
84 [label="gini = 0.0\nsamples = 6\nvalue = [0, 6]"] ;
82 -> 84 ;
85 [label="X[0] <= 163.247\ngini = 0.471\nsamples = 1224\nvalue = [465, 759]"] ;
1 -> 85 ;
86 [label="X[1] <= 65.971\ngini = 0.289\nsamples = 405\nvalue = [334, 71]"] ;
85 -> 86 ;
87 [label="X[0] <= 160.911\ngini = 0.475\nsamples = 173\nvalue = [106, 67]"] ;
86 -> 87 ;
88 [label="X[1] <= 64.329\ngini = 0.078\nsamples = 98\nvalue = [94, 4]"] ;
87 -> 88 ;
89 [label="X[0] <= 160.136\ngini = 0.36\nsamples = 17\nvalue = [13, 4]"] ;
88 -> 89 ;
90 [label="gini = 0.0\nsamples = 13\nvalue = [13, 0]"] ;
89 -> 90 ;
91 [label="gini = 0.0\nsamples = 4\nvalue = [0, 4]"] ;
89 -> 91 ;
92 [label="gini = 0.0\nsamples = 81\nvalue = [81, 0]"] ;
88 -> 92 ;
93 [label="X[1] <= 65.368\ngini = 0.269\nsamples = 75\nvalue = [12, 63]"] ;
87 -> 93 ;
94 [label="gini = 0.0\nsamples = 48\nvalue = [0, 48]"] ;
93 -> 94 ;
95 [label="X[0] <= 162.119\ngini = 0.494\nsamples = 27\nvalue = [12, 15]"] ;
93 -> 95 ;
96 [label="gini = 0.0\nsamples = 12\nvalue = [12, 0]"] ;
95 -> 96 ;
97 [label="gini = 0.0\nsamples = 15\nvalue = [0, 15]"] ;
95 -> 97 ;
98 [label="X[0] <= 163.1\ngini = 0.034\nsamples = 232\nvalue = [228, 4]"] ;
86 -> 98 ;
99 [label="X[1] <= 66.064\ngini = 0.009\nsamples = 217\nvalue = [216, 1]"] ;
98 -> 99 ;
100 [label="X[1] <= 66.054\ngini = 0.18\nsamples = 10\nvalue = [9, 1]"] ;
99 -> 100 ;
101 [label="gini = 0.0\nsamples = 9\nvalue = [9, 0]"] ;
100 -> 101 ;
102 [label="gini = 0.0\nsamples = 1\nvalue = [0, 1]"] ;
100 -> 102 ;
103 [label="gini = 0.0\nsamples = 207\nvalue = [207, 0]"] ;
99 -> 103 ;
104 [label="X[1] <= 66.579\ngini = 0.32\nsamples = 15\nvalue = [12, 3]"] ;
98 -> 104 ;
105 [label="gini = 0.0\nsamples = 3\nvalue = [0, 3]"] ;
104 -> 105 ;
106 [label="gini = 0.0\nsamples = 12\nvalue = [12, 0]"] ;
104 -> 106 ;
107 [label="X[0] <= 165.794\ngini = 0.269\nsamples = 819\nvalue = [131, 688]"] ;
85 -> 107 ;
108 [label="X[1] <= 67.285\ngini = 0.466\nsamples = 317\nvalue = [117, 200]"] ;
107 -> 108 ;
109 [label="X[1] <= 67.196\ngini = 0.012\nsamples = 171\nvalue = [1, 170]"] ;
108 -> 109 ;
110 [label="gini = 0.0\nsamples = 167\nvalue = [0, 167]"] ;
109 -> 110 ;
111 [label="X[0] <= 164.187\ngini = 0.375\nsamples = 4\nvalue = [1, 3]"] ;
109 -> 111 ;
112 [label="gini = 0.0\nsamples = 1\nvalue = [1, 0]"] ;
111 -> 112 ;
113 [label="gini = 0.0\nsamples = 3\nvalue = [0, 3]"] ;
111 -> 113 ;
114 [label="X[1] <= 68.432\ngini = 0.327\nsamples = 146\nvalue = [116, 30]"] ;
108 -> 114 ;
115 [label="X[0] <= 164.751\ngini = 0.493\nsamples = 68\nvalue = [38, 30]"] ;
114 -> 115 ;
116 [label="gini = 0.0\nsamples = 32\nvalue = [32, 0]"] ;
115 -> 116 ;
117 [label="X[1] <= 67.995\ngini = 0.278\nsamples = 36\nvalue = [6, 30]"] ;
115 -> 117 ;
118 [label="gini = 0.0\nsamples = 22\nvalue = [0, 22]"] ;
117 -> 118 ;
119 [label="X[0] <= 165.335\ngini = 0.49\nsamples = 14\nvalue = [6, 8]"] ;
117 -> 119 ;
120 [label="X[0] <= 165.207\ngini = 0.245\nsamples = 7\nvalue = [6, 1]"] ;
119 -> 120 ;
121 [label="gini = 0.0\nsamples = 5\nvalue = [5, 0]"] ;
120 -> 121 ;
122 [label="X[1] <= 68.254\ngini = 0.5\nsamples = 2\nvalue = [1, 1]"] ;
120 -> 122 ;
123 [label="gini = 0.0\nsamples = 1\nvalue = [0, 1]"] ;
122 -> 123 ;
124 [label="gini = 0.0\nsamples = 1\nvalue = [1, 0]"] ;
122 -> 124 ;
125 [label="gini = 0.0\nsamples = 7\nvalue = [0, 7]"] ;
119 -> 125 ;
126 [label="gini = 0.0\nsamples = 78\nvalue = [78, 0]"] ;
114 -> 126 ;
127 [label="X[0] <= 166.752\ngini = 0.054\nsamples = 502\nvalue = [14, 488]"] ;
107 -> 127 ;
128 [label="X[1] <= 68.883\ngini = 0.249\nsamples = 96\nvalue = [14, 82]"] ;
127 -> 128 ;
129 [label="gini = 0.0\nsamples = 80\nvalue = [0, 80]"] ;
128 -> 129 ;
130 [label="X[1] <= 69.426\ngini = 0.219\nsamples = 16\nvalue = [14, 2]"] ;
128 -> 130 ;
131 [label="X[0] <= 166.523\ngini = 0.48\nsamples = 5\nvalue = [3, 2]"] ;
130 -> 131 ;
132 [label="gini = 0.0\nsamples = 3\nvalue = [3, 0]"] ;
131 -> 132 ;
133 [label="gini = 0.0\nsamples = 2\nvalue = [0, 2]"] ;
131 -> 133 ;
134 [label="gini = 0.0\nsamples = 11\nvalue = [11, 0]"] ;
130 -> 134 ;
135 [label="gini = 0.0\nsamples = 406\nvalue = [0, 406]"] ;
127 -> 135 ;
136 [label="X[1] <= 75.481\ngini = 0.118\nsamples = 5004\nvalue = [4688, 316]"] ;
0 -> 136 [labeldistance=2.5, labelangle=-45, headlabel="False"] ;
137 [label="X[0] <= 170.476\ngini = 0.381\nsamples = 916\nvalue = [681, 235]"] ;
136 -> 137 ;
138 [label="X[0] <= 168.998\ngini = 0.126\nsamples = 664\nvalue = [619, 45]"] ;
137 -> 138 ;
139 [label="X[1] <= 70.353\ngini = 0.03\nsamples = 534\nvalue = [526, 8]"] ;
138 -> 139 ;
140 [label="X[0] <= 167.665\ngini = 0.426\nsamples = 13\nvalue = [9, 4]"] ;
139 -> 140 ;
141 [label="gini = 0.0\nsamples = 9\nvalue = [9, 0]"] ;
140 -> 141 ;
142 [label="gini = 0.0\nsamples = 4\nvalue = [0, 4]"] ;
140 -> 142 ;
143 [label="X[0] <= 168.493\ngini = 0.015\nsamples = 521\nvalue = [517, 4]"] ;
139 -> 143 ;
144 [label="gini = 0.0\nsamples = 468\nvalue = [468, 0]"] ;
143 -> 144 ;
145 [label="X[1] <= 71.09\ngini = 0.14\nsamples = 53\nvalue = [49, 4]"] ;
143 -> 145 ;
146 [label="gini = 0.0\nsamples = 4\nvalue = [0, 4]"] ;
145 -> 146 ;
147 [label="gini = 0.0\nsamples = 49\nvalue = [49, 0]"] ;
145 -> 147 ;
148 [label="X[1] <= 71.735\ngini = 0.407\nsamples = 130\nvalue = [93, 37]"] ;
138 -> 148 ;
149 [label="gini = 0.0\nsamples = 32\nvalue = [0, 32]"] ;
148 -> 149 ;
150 [label="X[1] <= 72.455\ngini = 0.097\nsamples = 98\nvalue = [93, 5]"] ;
148 -> 150 ;
151 [label="X[0] <= 169.876\ngini = 0.473\nsamples = 13\nvalue = [8, 5]"] ;
150 -> 151 ;
152 [label="gini = 0.0\nsamples = 8\nvalue = [8, 0]"] ;
151 -> 152 ;
153 [label="gini = 0.0\nsamples = 5\nvalue = [0, 5]"] ;
151 -> 153 ;
154 [label="gini = 0.0\nsamples = 85\nvalue = [85, 0]"] ;
150 -> 154 ;
155 [label="X[1] <= 73.74\ngini = 0.371\nsamples = 252\nvalue = [62, 190]"] ;
137 -> 155 ;
156 [label="X[0] <= 171.259\ngini = 0.096\nsamples = 139\nvalue = [7, 132]"] ;
155 -> 156 ;
157 [label="X[1] <= 73.177\ngini = 0.32\nsamples = 35\nvalue = [7, 28]"] ;
156 -> 157 ;
158 [label="X[1] <= 72.89\ngini = 0.067\nsamples = 29\nvalue = [1, 28]"] ;
157 -> 158 ;
159 [label="gini = 0.0\nsamples = 26\nvalue = [0, 26]"] ;
158 -> 159 ;
160 [label="X[1] <= 73.063\ngini = 0.444\nsamples = 3\nvalue = [1, 2]"] ;
158 -> 160 ;
161 [label="gini = 0.0\nsamples = 1\nvalue = [1, 0]"] ;
160 -> 161 ;
162 [label="gini = 0.0\nsamples = 2\nvalue = [0, 2]"] ;
160 -> 162 ;
163 [label="gini = 0.0\nsamples = 6\nvalue = [6, 0]"] ;
157 -> 163 ;
164 [label="gini = 0.0\nsamples = 104\nvalue = [0, 104]"] ;
156 -> 164 ;
165 [label="X[0] <= 172.496\ngini = 0.5\nsamples = 113\nvalue = [55, 58]"] ;
155 -> 165 ;
166 [label="X[0] <= 172.081\ngini = 0.128\nsamples = 58\nvalue = [54, 4]"] ;
165 -> 166 ;
167 [label="gini = 0.0\nsamples = 46\nvalue = [46, 0]"] ;
166 -> 167 ;
168 [label="X[1] <= 74.18\ngini = 0.444\nsamples = 12\nvalue = [8, 4]"] ;
166 -> 168 ;
169 [label="gini = 0.0\nsamples = 4\nvalue = [0, 4]"] ;
168 -> 169 ;
170 [label="gini = 0.0\nsamples = 8\nvalue = [8, 0]"] ;
168 -> 170 ;
171 [label="X[1] <= 75.29\ngini = 0.036\nsamples = 55\nvalue = [1, 54]"] ;
165 -> 171 ;
172 [label="gini = 0.0\nsamples = 48\nvalue = [0, 48]"] ;
171 -> 172 ;
173 [label="X[1] <= 75.306\ngini = 0.245\nsamples = 7\nvalue = [1, 6]"] ;
171 -> 173 ;
174 [label="gini = 0.0\nsamples = 1\nvalue = [1, 0]"] ;
173 -> 174 ;
175 [label="gini = 0.0\nsamples = 6\nvalue = [0, 6]"] ;
173 -> 175 ;
176 [label="X[1] <= 79.923\ngini = 0.039\nsamples = 4088\nvalue = [4007, 81]"] ;
136 -> 176 ;
177 [label="X[0] <= 176.077\ngini = 0.137\nsamples = 826\nvalue = [765, 61]"] ;
176 -> 177 ;
178 [label="X[0] <= 174.724\ngini = 0.039\nsamples = 757\nvalue = [742, 15]"] ;
177 -> 178 ;
179 [label="X[0] <= 174.532\ngini = 0.003\nsamples = 689\nvalue = [688, 1]"] ;
178 -> 179 ;
180 [label="gini = 0.0\nsamples = 675\nvalue = [675, 0]"] ;
179 -> 180 ;
181 [label="X[1] <= 76.214\ngini = 0.133\nsamples = 14\nvalue = [13, 1]"] ;
179 -> 181 ;
182 [label="gini = 0.0\nsamples = 1\nvalue = [0, 1]"] ;
181 -> 182 ;
183 [label="gini = 0.0\nsamples = 13\nvalue = [13, 0]"] ;
181 -> 183 ;
184 [label="X[1] <= 77.135\ngini = 0.327\nsamples = 68\nvalue = [54, 14]"] ;
178 -> 184 ;
185 [label="X[1] <= 76.822\ngini = 0.124\nsamples = 15\nvalue = [1, 14]"] ;
184 -> 185 ;
186 [label="gini = 0.0\nsamples = 13\nvalue = [0, 13]"] ;
185 -> 186 ;
187 [label="X[1] <= 76.995\ngini = 0.5\nsamples = 2\nvalue = [1, 1]"] ;
185 -> 187 ;
188 [label="gini = 0.0\nsamples = 1\nvalue = [1, 0]"] ;
187 -> 188 ;
189 [label="gini = 0.0\nsamples = 1\nvalue = [0, 1]"] ;
187 -> 189 ;
190 [label="gini = 0.0\nsamples = 53\nvalue = [53, 0]"] ;
184 -> 190 ;
191 [label="X[1] <= 78.19\ngini = 0.444\nsamples = 69\nvalue = [23, 46]"] ;
177 -> 191 ;
192 [label="X[1] <= 77.624\ngini = 0.074\nsamples = 26\nvalue = [1, 25]"] ;
191 -> 192 ;
193 [label="gini = 0.0\nsamples = 22\nvalue = [0, 22]"] ;
192 -> 193 ;
194 [label="X[1] <= 77.799\ngini = 0.375\nsamples = 4\nvalue = [1, 3]"] ;
192 -> 194 ;
195 [label="gini = 0.0\nsamples = 1\nvalue = [1, 0]"] ;
194 -> 195 ;
196 [label="gini = 0.0\nsamples = 3\nvalue = [0, 3]"] ;
194 -> 196 ;
197 [label="X[0] <= 178.509\ngini = 0.5\nsamples = 43\nvalue = [22, 21]"] ;
191 -> 197 ;
198 [label="X[1] <= 78.935\ngini = 0.211\nsamples = 25\nvalue = [22, 3]"] ;
197 -> 198 ;
199 [label="X[0] <= 177.039\ngini = 0.49\nsamples = 7\nvalue = [4, 3]"] ;
198 -> 199 ;
200 [label="gini = 0.0\nsamples = 4\nvalue = [4, 0]"] ;
199 -> 200 ;
201 [label="gini = 0.0\nsamples = 3\nvalue = [0, 3]"] ;
199 -> 201 ;
202 [label="gini = 0.0\nsamples = 18\nvalue = [18, 0]"] ;
198 -> 202 ;
203 [label="gini = 0.0\nsamples = 18\nvalue = [0, 18]"] ;
197 -> 203 ;
204 [label="X[1] <= 83.848\ngini = 0.012\nsamples = 3262\nvalue = [3242, 20]"] ;
176 -> 204 ;
205 [label="X[0] <= 181.296\ngini = 0.041\nsamples = 768\nvalue = [752, 16]"] ;
204 -> 205 ;
206 [label="X[0] <= 179.615\ngini = 0.008\nsamples = 753\nvalue = [750, 3]"] ;
205 -> 206 ;
207 [label="gini = 0.0\nsamples = 727\nvalue = [727, 0]"] ;
206 -> 207 ;
208 [label="X[1] <= 81.217\ngini = 0.204\nsamples = 26\nvalue = [23, 3]"] ;
206 -> 208 ;
209 [label="gini = 0.0\nsamples = 3\nvalue = [0, 3]"] ;
208 -> 209 ;
210 [label="gini = 0.0\nsamples = 23\nvalue = [23, 0]"] ;
208 -> 210 ;
211 [label="X[1] <= 83.647\ngini = 0.231\nsamples = 15\nvalue = [2, 13]"] ;
205 -> 211 ;
212 [label="gini = 0.0\nsamples = 11\nvalue = [0, 11]"] ;
211 -> 212 ;
213 [label="X[0] <= 182.505\ngini = 0.5\nsamples = 4\nvalue = [2, 2]"] ;
211 -> 213 ;
214 [label="gini = 0.0\nsamples = 2\nvalue = [2, 0]"] ;
213 -> 214 ;
215 [label="gini = 0.0\nsamples = 2\nvalue = [0, 2]"] ;
213 -> 215 ;
216 [label="X[0] <= 184.555\ngini = 0.003\nsamples = 2494\nvalue = [2490, 4]"] ;
204 -> 216 ;
217 [label="gini = 0.0\nsamples = 2047\nvalue = [2047, 0]"] ;
216 -> 217 ;
218 [label="X[1] <= 85.265\ngini = 0.018\nsamples = 447\nvalue = [443, 4]"] ;
216 -> 218 ;
219 [label="gini = 0.0\nsamples = 2\nvalue = [0, 2]"] ;
218 -> 219 ;
220 [label="X[1] <= 88.468\ngini = 0.009\nsamples = 445\nvalue = [443, 2]"] ;
218 -> 220 ;
221 [label="X[0] <= 186.094\ngini = 0.298\nsamples = 11\nvalue = [9, 2]"] ;
220 -> 221 ;
222 [label="gini = 0.0\nsamples = 8\nvalue = [8, 0]"] ;
221 -> 222 ;
223 [label="X[1] <= 86.898\ngini = 0.444\nsamples = 3\nvalue = [1, 2]"] ;
221 -> 223 ;
224 [label="gini = 0.0\nsamples = 1\nvalue = [0, 1]"] ;
223 -> 224 ;
225 [label="X[1] <= 87.965\ngini = 0.5\nsamples = 2\nvalue = [1, 1]"] ;
223 -> 225 ;
226 [label="gini = 0.0\nsamples = 1\nvalue = [1, 0]"] ;
225 -> 226 ;
227 [label="gini = 0.0\nsamples = 1\nvalue = [0, 1]"] ;
225 -> 227 ;
228 [label="gini = 0.0\nsamples = 434\nvalue = [434, 0]"] ;
220 -> 228 ;
}